{
    "w": 40,
    "h": 50,
    "svm": {
        "bias": -38.314229062766294,
        "weight": [
            -1.3358500622648282,
            0.808873149673478,
            -0.016587598009834927,
            -0.6464811365006293,
            -1.4188094131615296,
            4.717695355231207,
            0.7897802406714343,
            1.5802502645760221,
            -3.23841648993074,
            -1.1065088793849607,
            -3.0386443111666774,
            3.873621873750345,
            -1.762500998352475,
            -0.6527121208324298,
            4.006041767900318,
            -2.4026566264122047,
            2.0297427109987476,
            1.6617703290425403,
            0.5785191450203042,
            -3.688016119858388,
            0.3620143262283295,
            -1.2074191806555472,
            2.444763157702875,
            1.4365029631718687,
            0.5343685185001569,
            -2.4722144733721687,
            -2.998992676802258,
            -1.0892983753960477,
            -5.126314093637811,
            3.3790845720084706,
            -0.9084373927000199,
            2.8287763313501335,
            -1.068899410301773,
            0.07312766608423867,
            -4.05099783159934,
            -2.362674915616966,
            -6.3666793710073994,
            1.3691554773312984,
            0.8735601236388396,
            0.13858225855745065,
            -2.8646833984970588,
            0.7836953100020068,
            0.8809640886718108,
            2.807216578273745,
            0.36490548198753014,
            1.0176214032078819,
            1.8096144389135553,
            5.794484699841743,
            5.083409281954235,
            3.3800690885170535,
            -1.078623333118597,
            -2.8477012219888733,
            -3.4986472377960727,
            -0.3901219201630775,
            1.9040658857969457,
            1.0996736916832073,
            2.46397085158503,
            4.178025275250384,
            -2.547528106614986,
            -3.588517055852872,
            -3.9123441701255977,
            0.02915308740099172,
            0.46077867581976056,
            2.3469828643232487,
            0.19467980157805434,
            1.3498979405071472,
            -0.9495398422847627,
            -3.4866458892401924,
            -3.7097536803299214,
            -1.1186712740737337,
            4.082437891002452,
            3.73956093178319,
            3.469416331616778,
            -2.9010625685042832,
            3.2941862519940286,
            -2.2521718899310916,
            -2.8282982544015507,
            -1.8662221548696032,
            -0.8083870228508145,
            2.2340845573251165,
            -1.6623114928452636,
            5.6317996679533096,
            1.279341573896172,
            -2.0551706996091514,
            -2.2123136073001404,
            -1.0317239072946007,
            0.7846134984271842,
            -1.0234109660350632,
            3.385673797495705,
            0.3951292307777703,
            -4.745903101849916,
            1.408646322461028,
            -0.5845252817846581,
            0.24823606179884647,
            0.15882946920186117,
            -0.5686672773977528,
            0.7192716542411252,
            1.561155280928707,
            0.5383060891437271,
            0.7506184481039856,
            -0.6383825693866136,
            -1.1045852299038477,
            0.17376678596705933,
            -1.6995548128214084,
            2.2293794360319557,
            -2.181808952226869,
            -4.091563536021894,
            0.15146219959582466,
            1.288009699718627,
            2.0457554437940106,
            -1.4160477801638467,
            0.6712847127106967,
            1.0547143755159076,
            -0.0898156172383529,
            -1.3650436167234496,
            -3.0681965453235627,
            -1.1693326866268585,
            -0.5190380251288453,
            2.0781095798216787,
            -1.2393259049292664,
            0.9596898003198173,
            1.8013025421222622,
            -3.9060795846102017,
            -1.8753724100868057,
            0.9288551743350176,
            -0.7483498906165083,
            3.4227046705356785,
            2.873814944874958,
            2.4766089464282985,
            -0.6349248184207065,
            -0.1172860245650871,
            2.713906834310918,
            0.7923752683891577,
            -1.4947990648743175,
            -4.3747664733772424,
            2.9405989232062764,
            -4.566272849732596,
            -2.2362340934740463,
            2.6103614992658244,
            -2.1521535782757475,
            0.7613278391903384,
            -0.849286286009227,
            1.662071344296141,
            2.7770821242884645,
            1.5381950117514511,
            3.9831424447243116,
            -0.4010568530791321,
            -1.5439351919948956,
            1.521670659059368,
            1.2986419305782693,
            -1.2887869035392963,
            3.7240707492230216,
            -2.720861789590664,
            -0.3335908289167677,
            -3.206373858681376,
            -3.5458639497285596,
            -2.827576115576432,
            2.020935886170071,
            1.6921529358353165,
            1.019334240738257,
            -4.017157706348266,
            0.07645860216324704,
            -4.753424024382457,
            -1.0805788642648446,
            0.2205025958290352,
            1.130976086924184,
            2.459335238833545,
            0.9449432251727048,
            -2.3649637524056613,
            -2.22482363446883,
            0.8428789073534004,
            0.5919788678892788,
            1.0152525187045724,
            6.710721355886405,
            1.537138360061253,
            -0.30944560782390146,
            1.1910763933292583,
            -0.585370494408471,
            2.7531365503533185,
            -1.8977494852128314,
            1.0588682540144916,
            -0.5459412304463234,
            1.9568155288223013,
            2.5310369117144558,
            -2.8280650826595544,
            -1.8074905164260957,
            0.8441444835976508,
            -1.3647081924829167,
            -0.39778489267004496,
            -2.94279700553131,
            2.880167174715883,
            1.011713321956097,
            0.05022430851407552,
            -4.45577342225368,
            -1.4468903850797512,
            0.8309236611139027,
            -4.735828662035045,
            0.2251171767216755,
            6.589464080966598,
            -1.5726864877397937,
            -0.33701500543788915,
            1.7772169921273318,
            -1.468646162608689,
            -0.4926564092126514,
            0.7167140110596039,
            2.1794446037544914,
            0.9387856210889451,
            -0.20574422317147745,
            -4.420702897479554,
            -2.8192795886639854,
            -2.298053265516696,
            -1.979839174010229,
            -1.0240710231429402,
            4.089590659092927,
            3.4067873338034924,
            -0.10348558064170936,
            -0.1666832419327689,
            3.8618424082529725,
            2.449657560914003,
            -1.0229918895687942,
            1.9410808089404425,
            0.6197033802747333,
            -1.200286469387867,
            -1.9159381393840385,
            -2.500590918761782,
            0.37284272832390153,
            -1.228288567562731,
            0.26085512942948985,
            1.905767761732529,
            3.542584043020283,
            -2.7562395611395005,
            -0.20062453683422582,
            -0.4388412917278694,
            0.6145814575174119,
            -2.298132667903516,
            -1.3249639197106342,
            4.941300790882076,
            -0.5259290395626841,
            0.08844108870605993,
            -0.4519245458597578,
            -1.4304823656264027,
            -0.7935241603685643,
            0.8937556112249011,
            -2.9070784275878476,
            1.6885813692208347,
            1.718145582063403,
            2.7712153529449846,
            -3.0080818459156027,
            -2.047604792300267,
            3.70541838662236,
            1.8200000592755163,
            -3.1519132712905527,
            -3.5586837032180765,
            2.297565784994622,
            1.4993993698738013,
            -0.17159425338868248,
            -0.8850247531424628,
            -1.537346037187445,
            -0.17494548749036926,
            -0.6134268702021088,
            -2.564513012852671,
            -2.2823794108422764,
            0.7966646095661184,
            -4.256535763820715,
            2.2124566046219782,
            3.6665937296027304,
            2.162651322855204,
            1.7310476256634433,
            0.3987195381041387,
            1.5250858560571598,
            -0.6782888022982698,
            0.9825191103988359,
            4.03203808006028,
            1.2644686271228238,
            -1.4261677688573628,
            -2.4401348830038976,
            -3.486282346613407,
            -2.3247042363021735,
            -1.466908578684778,
            0.36704268220549513,
            4.023039614322691,
            3.3843766511597515,
            0.3545128801171245,
            -1.779432296610953,
            -2.8885898611403915,
            2.33496511655457,
            -0.689869068099477,
            -0.9711021523297255,
            0.07950128343859801,
            0.7943165973777787,
            0.9350614471114637,
            0.18632717309516797,
            -4.40254936212261,
            -0.24009923939724,
            -0.4921330725862031,
            0.38778741296282704,
            -3.0946883336151054,
            6.371537747018075,
            0.190183994108536,
            1.643701239161108,
            -0.40906054807016795,
            -3.033597023867644,
            -0.7546911618640312,
            -0.1696373515651276,
            0.6672123009316792,
            1.8431207261568299,
            6.353859916890537,
            1.8571331858367757,
            -0.8024418572052235,
            -2.744582182001047,
            0.7288312427801409,
            -2.0684666279918518,
            -0.4470891839431562,
            -0.2514451911693049,
            -2.3406210164728107,
            -2.1094562813766458,
            -1.685510629265482,
            -0.5344204698552465,
            -1.2318179669822487,
            2.8720677827612797,
            -1.6253272696136434,
            -2.0461594923318773,
            -4.048662281033421,
            -4.763269709238981,
            2.017491730922147,
            3.733605774405366,
            0.004885654140310409,
            1.4920479239484812,
            -2.725155293217006,
            -3.077038339068116,
            0.4629781844164582,
            1.4078730706022557,
            3.3808035062905324,
            4.533835426088932,
            0.1868484611525784,
            -0.7488686550686472,
            0.03668099033185576,
            -1.8710313160265226,
            -1.4023996895352528,
            0.4371381143301153,
            1.3239054135994504,
            4.973243969102637,
            1.688919853615266,
            1.4988431987637343,
            -3.0477784974523154,
            -2.596044138156024,
            -1.0032199351607154,
            -0.8213838571468907,
            1.813639055645942,
            1.0249655748473796,
            0.7383136356667367,
            -3.465390032628541,
            -0.6638856901892367,
            -0.07660399299876265,
            -0.3355773442854219,
            -0.8287829684377385,
            5.155726469634585,
            2.726711776217951,
            1.0620358455183925,
            -1.5817725928239996,
            2.3830395758276963,
            -0.44073476717017923,
            -1.143451557726852,
            -1.9622876982564967,
            -2.0803340605188327,
            -1.0827894653165588,
            0.46631279618117644,
            -1.0456093789456757,
            -0.7119154717657274,
            -2.8204047813772655,
            -0.7827056972367791,
            -1.5499214177138985,
            -3.7476944152857534,
            0.037058637415220266,
            2.206829767840756,
            -1.5691342787811864,
            3.461905137480369,
            5.109786866617257,
            3.0606189601045037,
            0.24213661232942033,
            1.8612672044160052,
            -1.0546018932656793,
            1.025951060771701,
            -3.513706890921388,
            1.859436350467101,
            1.8389253744388288,
            3.060718612984089,
            1.2830744873534494,
            0.20198982998922174,
            -0.2961239406319671,
            -2.0804949237174637,
            -4.43189930269463,
            -2.9455367534917776,
            -2.1294603343584186,
            2.676022038412358,
            -1.5168144341380483,
            5.154997945265044,
            -0.25532425741356285,
            0.31167036472048065,
            -3.1137482358579374,
            0.5672684706418207,
            -0.03298130526880883,
            2.401055929170621,
            1.8495173939434437,
            1.9413224452639122,
            0.8868468046423437,
            0.3487102452700986,
            -0.20564758987812912,
            -1.8346747169619286,
            -1.455852506783242,
            -0.49062497681290085,
            -0.2678275683223836,
            -2.1344485372356883,
            -1.8276386785845702,
            -1.2229294952915304,
            1.9910495990971155,
            0.0677145780255812,
            2.135405989316368,
            -2.1556849609637103,
            -1.6672348471384302,
            -0.05672808958982685,
            3.940133651839193,
            0.3586562203114344,
            -0.6489865082664256,
            -1.2268707866286175,
            -3.2796165782800553,
            -0.0992565591299592,
            0.18276550201161437,
            3.608627790550646,
            1.2868291890178982,
            0.11774382580367308,
            -2.5140229911236336,
            -0.8548409667416252,
            -1.7106549973224994,
            -3.084374548513918,
            -3.1364449194646347,
            1.304503230359295,
            0.8188634516704314,
            3.3350433159211574,
            2.1568186568063354,
            3.0604293835566145,
            -3.8362721938673174,
            0.18368008225564061,
            1.3485492267597736,
            -2.4237273930133214,
            1.8158404753556303,
            1.5268539479682706,
            -0.6327698013833892,
            2.0482495351424337,
            1.2888029739138978,
            1.4295438535076066,
            0.2689990904430642,
            -1.6175458056091743,
            -2.473659960211257,
            -0.593820476627371,
            -1.172436772115104,
            0.567493947198545,
            -1.8243606769795908,
            4.12874561691803,
            -1.2776506454357017,
            -0.5094730327095953,
            0.6908875614160719,
            -0.8389661312315402,
            -0.07495615804048068,
            -0.8990049622862334,
            1.3161307166328606,
            -0.17705555883456053,
            1.9794213238894316,
            0.44810477846280183,
            -2.012290487813201,
            -0.8920743579573854,
            -3.2293572554341483,
            -3.4885633704650325,
            2.976215071415359,
            2.078852758863528,
            3.1275695594896256,
            0.7649019276003681,
            -2.0605755731560524,
            -0.9561126221193557,
            2.4802704244863087,
            -1.181178518680956,
            -1.2519831469011853,
            -1.119687606486386,
            1.4009227145971097,
            2.418737222351671,
            0.13965361244056634,
            2.738652228270826,
            -0.09212554187556422,
            -1.6438268560856715,
            0.04621558399069816,
            1.3027855996024245,
            -0.8213455239903453,
            2.044716868090649,
            -1.045277816435768,
            -1.6655506030652272,
            -0.5942110882236445,
            -0.7345955962427582,
            -2.5247067225804254,
            2.406882889291245,
            0.010879662559594938,
            2.059393824671047,
            0.08327960349197926,
            -4.490533359988876,
            0.9027414346711489,
            -4.221906611351018,
            3.55966827786482,
            2.074455734965847,
            -3.0249124362573707,
            0.8622843368754766,
            3.2183115537238143,
            -0.8330107397801685,
            0.2991114828115562,
            1.614180110125375,
            0.4542422299342252,
            -1.4446496784453968,
            4.316238031828831,
            -1.8572510821255999,
            1.3098373051674228,
            -0.6280546715774027,
            -3.600122808043784,
            -0.8063154541159597,
            0.5754232354363008,
            1.1445839354002318,
            -0.630709985278561,
            -0.4097333947720389,
            2.2029901616344714,
            -1.7686680939822421,
            -0.2786380010486727,
            -0.7679034637310359,
            0.3652532018551114,
            -2.616063294204117,
            2.91714749774735,
            0.864426846195936,
            -1.9326533074746655,
            0.9302935838621097,
            -0.15231381256638027,
            0.33871360258460015,
            1.2933749781951325,
            -3.5980851891175334,
            0.19450038750556467,
            3.7646248182938655,
            -1.2582473478116862,
            -3.2146603050618143,
            1.998453479094621,
            -0.6609264846115802,
            -2.3357034577822042,
            3.1551387973202014,
            -1.1367759243736695,
            2.527811729144129,
            0.3440376555946707,
            0.14538040388073334,
            -0.8949656721313364,
            1.7972122391361771,
            -0.6174385903775502,
            0.2073136871619306,
            -1.0214568518254121,
            3.07810930994649,
            -4.568930862658925,
            2.639052424678363,
            -5.343091766782257,
            -1.1066682353197985,
            3.6170738003814695,
            2.6794439051407375,
            0.9256413783044476,
            4.053734411056347,
            -0.30207978584654294,
            3.952879051442084,
            -1.94756434175107,
            -1.5172917456665063,
            -0.2609388160043963,
            0.10649234509022606,
            -0.6143849444494817,
            -1.3308739331593722,
            -4.391827793216725,
            -3.675403873082321,
            -0.4959685891485054,
            2.5804623026794635,
            1.2898236328377137,
            3.812044105365623,
            -1.0664253252957356,
            1.6667453708065738,
            -1.5976701800876438,
            -0.05281382554187369,
            -1.5536422418219793,
            1.0543680618786762,
            1.0465152974146956,
            1.1182884349115207,
            -3.8547389038961426,
            -1.1729490228864903,
            -2.7367576766484616,
            0.8867498556061132,
            -3.0130269112569996,
            -4.1931164183985885,
            -2.4647035240044044,
            -1.290087108066639,
            -0.19636865806564044,
            6.187318782708709,
            -0.9664637403123537,
            1.121542254496246,
            -3.096781101433258,
            0.3806883643114643,
            2.8193721434453876,
            0.298807773233867,
            -0.43973340810899636,
            0.22898404500437158,
            0.931016797738288,
            2.130254875713486,
            0.2803242648540102,
            0.15859691473781598,
            -2.0102563005885767,
            5.709104933901376,
            3.884757489553295,
            0.2519728096194963,
            1.9879939243917666,
            0.10954043971035025,
            -1.465416298863534,
            0.8124883996812453,
            -2.773150417028514,
            -0.7917343047511358,
            -0.18680660733497528,
            -1.1573693620286074,
            0.24090155337565616,
            1.0073229197144333,
            -5.392502808382354,
            -4.291711404126631,
            -3.6086236986379605,
            0.9724138579766909,
            1.0625268244017592,
            -0.4467399588126254,
            -1.0892957145398063,
            -0.9775200643937761,
            -3.0198208906465642,
            -3.0209400276181784,
            -0.25652703688781475,
            4.492054276060486,
            5.833870087632456,
            5.5920461983630645,
            2.8317704950398874,
            -1.1600226483073812,
            -2.8754320986810207,
            3.4178566091038354,
            -4.082077720763418,
            2.4907733527762814,
            0.038201316832233295,
            1.3417348615306717,
            -2.9746492463085543,
            -0.8756538321004048,
            -1.8237880931053838,
            -1.9333550827218215,
            0.41288211441763384,
            1.7164845048277655,
            0.7810471593134526,
            3.539963362141376,
            0.3326915081297073,
            -1.7739366709044866,
            -1.6012743622895194,
            -1.04582482679083,
            -0.7079743071895651,
            0.7148283837541608,
            1.9229260362786273,
            2.369065720660675,
            -3.2872209859614583,
            -1.8345961011548537,
            0.2733731988171413,
            1.5582387174450194,
            1.016606852566405,
            -0.8534987489855432,
            -0.6624420407269921,
            -4.268654397294687,
            -2.2156172029862566,
            4.583992913437585,
            1.6882552749665047,
            2.1344420565865043,
            -2.2323401559467855,
            1.5661113249169387,
            2.3120573229705084,
            2.955580817860113,
            3.9021496657025496,
            -0.7444613159170878,
            -4.519622051577281,
            -0.5925272194985972,
            -0.7499979677610792,
            -4.024101354921109,
            -0.42686761400730916,
            0.4094820043798119,
            4.051278752090294,
            -4.079454586130114,
            1.0135868366692713,
            -0.006093225890010273,
            -1.4833379299904748,
            0.28305418477816907,
            3.3833727713675503,
            1.7869164372839343,
            -3.863143753492885,
            -0.5365262033142938,
            2.619801238667563,
            0.6772653321653296,
            0.3755834439110137,
            -3.45540633980267,
            2.822136009692424,
            1.1509944102263567,
            0.4144289740447202,
            -2.086392691146963,
            -2.540907382862857,
            -1.7565682719396392,
            -0.9408576445336297,
            -1.3509219698852997,
            1.8960608787613593,
            5.009041275424255,
            -0.7003047177489226,
            0.11824308946831696,
            0.6489003909192034,
            -3.1978870242598068,
            -3.7808203188259255,
            3.486567989665339,
            1.0041306745610517,
            0.9627282644845732,
            -1.6021438980708922,
            3.506755753934389,
            -4.43553594742228,
            -1.8062647874334639,
            -0.39102537776201035,
            -0.9277371651719993,
            3.2023178441989035,
            1.0106837842239227,
            1.6681625047513764,
            0.40744065851155975,
            -2.466973510132231,
            7.129126799617682,
            0.781362958952007,
            -1.4892801610906212,
            -2.800458942788105,
            0.45821936341518726,
            -2.1022454607029633,
            -1.3524011390859088,
            -1.3134802432555994,
            -1.5962633357201383,
            -3.729372206932315,
            1.2854442095668654,
            0.0062209841709355215,
            2.4078931586307353,
            -3.097325082913929,
            0.4413344270451292,
            -1.9942064190457023,
            1.146693216317025,
            -1.2054550258976031,
            1.0489832649880024,
            5.796514583856046,
            2.3652962046270334,
            -1.6638130186437559,
            1.8090954313568532,
            -3.2834930630448182,
            -1.3943350180311513,
            2.0427027060328147,
            0.9387225714855258,
            -0.27259158228211094,
            -2.5518956378277173,
            0.7209109234767491,
            6.564525333752117,
            -2.949047655731948,
            1.2017312686259922,
            -2.4156951265787807,
            -2.849239274874817,
            -3.7373161474948065,
            3.268744021418485,
            2.018155432649328,
            2.067820465544756,
            -2.3241253989097737,
            -0.8858954144339469,
            -1.2474231722859095,
            3.6007235076746364,
            -2.7879319603507997,
            -0.44743032646093817,
            0.33701563010308755,
            1.7326669958025835,
            -0.9718831315435543,
            -3.756920136740675,
            -0.5203743941519126,
            5.622198282261484,
            0.7106239277099679,
            0.5048110143555327,
            0.0005524836675623148,
            -0.4418879443532231,
            -2.8783636154075936,
            -3.301087619398344,
            -0.1907680664549338,
            -0.9470004111615544,
            1.1903546512083059,
            2.8984359882594153,
            -2.4055631953792886,
            -2.9034411445918966,
            -6.17595286487219,
            -0.6163074896216121,
            1.282730291541558,
            2.5696456620747714,
            6.271288187792329,
            2.327467248772917,
            4.719823192536077,
            -3.4141370196763483,
            -2.0740981244860457,
            -1.602505535068705,
            -0.2329602367799673,
            5.189963273904593,
            0.4734329715765091,
            -1.9549190830271321,
            -1.0677730092247408,
            -1.7704438222617767,
            -1.9847789585118008,
            -1.9704917943899756,
            -2.1144657612465925,
            6.776417517819745,
            1.0771618400237706,
            2.5531030885261146,
            -0.6221214966042462,
            0.8942156052148945,
            -4.667214589656163,
            -2.1315467828186265,
            0.7464842636581057,
            3.908368780243454,
            5.018755386018461,
            -3.0669552887094493,
            4.246128223185893,
            0.2356659103587419,
            -5.4578317279592525,
            1.1388551271258303,
            2.627251443888906,
            -5.251166311234114,
            -1.35172595429224,
            2.105858896065056,
            -3.3775045765463263,
            1.624379160197151,
            -0.711510074157022,
            1.7269437477288863,
            -4.335062600588942,
            2.4957924555704123,
            -0.0543039840122508,
            2.3001226320752424,
            1.1307888117816063,
            -2.8925868511622443,
            -2.2272593406962273,
            0.4355657108110635,
            -0.3205673044166947,
            -2.304662141252434,
            1.0688093439553137,
            1.9501669752726998,
            -1.1818602270905816,
            2.0255565163958824,
            -1.1879358663167607,
            -2.187900642123183,
            -1.1478443841956372,
            0.30212666781734926,
            3.602476277678641,
            0.8298031164785206,
            -1.6064081264245365,
            -1.1277642396539758,
            -2.6122756373874023,
            2.249018629510733,
            -2.1961318915234114,
            -0.12909470933835845,
            -2.4596734805509057,
            4.151054573946319,
            1.3612896662248266,
            0.6781967550247624,
            -1.0608796153076205,
            0.14942334347487754,
            1.9858114404581926,
            0.26263677132268815,
            -3.0763627420027513,
            3.296743355398559,
            0.45203055636048256,
            4.32520561084424,
            -3.569912601770437,
            0.3965502849997641,
            -4.150970884880531,
            -1.0096966766058237,
            -1.2480723799120976,
            2.2114383415105627,
            -4.030670286880404,
            2.1869130244337374,
            -0.07138435276391956,
            -1.9790541592936588,
            0.38307663918087653,
            1.8620432027887077,
            3.4184224331238013,
            4.812639147382161,
            -2.459882486071435,
            3.7553368948508528,
            -1.598505469982553,
            0.10588335073155052,
            1.6615170155625236,
            -4.214014543023813,
            -1.0556088315778296,
            0.2553373705221477,
            2.1607861990898862,
            -2.4983799373247684,
            -1.732073504125053,
            -1.0992976728501722,
            0.877489491149619,
            3.663830284844126,
            -6.972702403852181,
            -1.1609796075177512,
            -1.1869239978752124,
            -3.154126559209574,
            0.3878544337469815,
            0.5117228707016824,
            1.7508862130440666,
            0.16055053654757076,
            -0.30931287537425345,
            1.9339657684754337,
            3.0001771300672466,
            1.3815428580461364,
            -1.8034179615025647,
            2.239563062676507,
            -0.5913529838224247,
            -0.4827139709487408,
            -2.173033703903607,
            -0.6823783307087173,
            -1.1084338110382668,
            -3.111480049161319,
            1.1034027697040278,
            2.1839848534284605,
            -3.0784835074910664,
            -2.0555156131343164,
            0.9706648454274219,
            0.34773656479196524,
            2.3031660621864063,
            3.1149515571664717,
            1.1934704301037182,
            1.5707923537533872,
            -0.7763609974423099,
            -0.128975238310743,
            1.25008151602473,
            -1.441847076113302,
            -0.9709825676399806,
            0.8846224090911275,
            -0.5252235847605325,
            4.110499342211614,
            0.7572242281580135,
            -1.050682177263007,
            -2.6318141051369826,
            -1.0245873908545848,
            2.2514673362206237,
            -0.2563870878826053,
            -0.7791154372740421,
            -1.4779716771459996,
            -4.576760802843257,
            -0.7348502739303862,
            -2.7627324305907717,
            -0.68076679265083,
            2.288759483208388,
            2.7831731307719836,
            -2.738715858032016,
            0.5332719195295265,
            -0.2899895786671117,
            1.5727092389420532,
            0.6224811138316186,
            0.3936561563828191,
            5.822274553540642,
            1.2266375388733406,
            -1.0205880503649178,
            -1.7966926342762604,
            0.24691324422991598,
            4.120243409746165,
            -0.30489292667228485,
            -4.43104340130105,
            -1.8710553478302543,
            -0.08280754126326931,
            1.404500791685034,
            -0.6844962481889922,
            2.7872476126660417,
            4.426989861936216,
            1.7513634365182145,
            0.3891119001769976,
            -1.1881548179133963,
            -3.960180295286378,
            -3.6042956862827147,
            3.2141741437432367,
            1.7256882586489468,
            3.5306687133794252,
            -4.7925679527782155,
            0.033333907702195346,
            -0.46346522975648363,
            1.9239920036840477,
            -2.6625467183857725,
            0.23339884258952504,
            -2.5058357672356855,
            3.676039192972338,
            -2.717170950863537,
            -0.010290329322236466,
            -2.023915281962065,
            -0.12344415248840453,
            2.593905973814775,
            4.497576638374835,
            2.155581332933489,
            5.737239659611873,
            -1.9544261884239416,
            -0.4197975529038819,
            -4.091507781731889,
            -0.4172224768111615,
            -3.07905017374306,
            1.6324968396641188,
            -0.23889578600203173,
            -3.229097784152901,
            -1.8763767565575402,
            -0.8582267329735837,
            -1.5307692850193855,
            1.389612099705799,
            3.694793421607729,
            0.4955815987740293,
            0.7845161593239678,
            1.4305179734075497,
            2.0923764998699124,
            -1.470271170841041,
            -0.11121053686733273,
            0.5390892076361775,
            -4.63939209989672,
            -4.158664973228117,
            -1.6147856063492148,
            5.042011756859252,
            -0.6308590132533203,
            0.1814508431656234,
            3.0054782150186408,
            -0.5114086210152601,
            0.7235298867707924,
            -2.945477679800793,
            -0.0829317367548301,
            0.9408330846436671,
            1.2725107847501624,
            3.5057274876130715,
            -0.9839108818480201,
            0.5909663805330704,
            0.5305032665426321,
            -2.165149612758796,
            -0.12025948670780254,
            2.2246314689661024,
            2.2546464785552565,
            -0.6462834075064648,
            -0.14814674020567628,
            -0.6339597752516127,
            -3.310428655134956,
            -2.8388929586967215,
            1.2297234847489515,
            -1.2383380134159079,
            -0.7257827901049761,
            2.9860309705646646,
            0.5453061408204936,
            1.8771766903884628,
            -1.4976783391456352,
            0.9300585779861379,
            0.10882506910338646,
            1.59047285753338,
            -2.7185105212827088,
            1.2816461142231437,
            -1.5126611012871745,
            2.5828177971236075,
            -2.53436775001414,
            0.2141014902286563,
            -0.6769696220010865,
            -2.0128468696443567,
            -2.5574396767586243,
            2.7063129995036714,
            -2.4383578212409955,
            0.30602969506753996,
            -1.5614276747290827,
            -3.0008089075875692,
            1.0212866462614,
            1.5354477763384877,
            0.25956362724384685,
            4.362740601202988,
            0.4428727489218424,
            2.3357739927144823,
            -1.7199433074494255,
            1.6008061295251892,
            1.9454944480802516,
            -1.4543955312717296,
            -3.482348375272316,
            -2.001932956440006,
            -2.9588373637622807,
            2.51409292028353,
            -0.9113653438749122,
            -1.240552503950153,
            2.492647064184715,
            -0.4255438110325089,
            -0.65926318138002,
            1.6709519499435184,
            -1.2941151258660621,
            2.7396393739450455,
            -0.27085825898390503,
            -0.7503045270815788,
            0.9079051509116097,
            -2.2414314977569805,
            -3.561392160684219,
            -2.3863962590220598,
            -2.4064250835501757,
            3.8387254230348478,
            -0.6593433081135327,
            0.2939579425125278,
            3.22577915691808,
            2.6002221904201073,
            -1.3285698489230355,
            -2.447695926863488,
            3.9169814379065357,
            3.846711485119058,
            -0.8343678603207046,
            -1.2718854065763554,
            -0.6416304735221511,
            -0.8998344322156974,
            -0.8665941341463914,
            -0.9220886476375276,
            1.7174744051601345,
            -0.211679577069668,
            -2.7355599041248486,
            2.073336233993143,
            3.1840242487175714,
            1.6638040972453956,
            -2.1795971110310766,
            -1.2491015691235925,
            2.35126053969899,
            0.48871830525669047,
            -1.7625551062814375,
            -0.2384599007171889,
            -1.0412127797305413,
            -1.1847205490954678,
            5.155515949426727,
            -2.821935106565424,
            1.3702261546966081,
            -2.93932139457916,
            1.6338278914183457,
            -1.1047709662210121,
            4.45857293569565,
            0.1462780082929037,
            0.8076790845876064,
            -3.809535564270518,
            -1.8498822497185747,
            1.39151681818409,
            0.8770915183038337,
            2.42740828135597,
            3.628584988452777,
            -1.120611651087591,
            3.2804947496677173,
            -2.653660685372836,
            -3.3054658644451225,
            -2.1481040736169934,
            1.7650384438990832,
            0.1651304785514544,
            2.5948119906954425,
            -1.8850291482443293,
            0.9868409227552727,
            -1.3587963669618253,
            -0.4266483221131598,
            0.38408291064362343,
            -2.412395807443381,
            -3.547759321021758,
            3.5224498095765404,
            -0.971768683737737,
            2.4590619214677405,
            -0.4358667268183704,
            1.2295307891911003,
            -0.16708383729874304,
            -0.06516300129279379,
            4.142017572468993,
            -1.6385761160716483,
            3.0621468105591405,
            -1.9143509141428912,
            2.318519290734858,
            -2.4926163442625087,
            -3.73331523475005,
            0.18525587866929216,
            2.2369976761638988,
            -3.262158338776814,
            -0.8130465012503334,
            -2.5259220535658176,
            0.6266247068031221,
            0.46791340499760514,
            0.05975373728911178,
            -3.7014170464038427,
            2.8106445393880484,
            4.800665384420075,
            2.9519609754544485,
            -1.7833244521553975,
            -2.085430137661079,
            -1.4455913817392505,
            0.13949524317254977,
            0.5223759975380672,
            7.008708306198788,
            3.628061070936979,
            -5.071398608779978,
            -3.76035586870063,
            1.09147668543061,
            -4.481831767529335,
            4.421763827038704,
            0.052939111257698734,
            2.4411575339282994,
            1.1143337710827066,
            0.48896648837695905,
            -1.7701808775257921,
            -1.4115511291967349,
            -1.6258175345920955,
            -2.739676297282849,
            1.0245241510683305,
            5.520448706683934,
            1.3010322479934437,
            -0.5120008945944128,
            -1.639226083190915,
            -3.2867869276892656,
            -1.9013757055275897,
            6.774576803101227,
            -0.1316558882941827,
            -1.4512656404272197,
            1.3767371001054307,
            -2.130207936182545,
            -3.7889026612229264,
            -3.604588583384303,
            -2.3344939248366225,
            2.1702984221708856,
            2.9297699374027357,
            1.3609265861520312,
            -1.4883214272051548,
            -3.357964612401392,
            -3.3564614905717285,
            -3.1026864428052607,
            -0.6403802862988505,
            0.47088028582361613,
            5.540923213548293,
            0.7031212840295628,
            0.859610489349298,
            3.1944686766723063,
            0.07629019151595728,
            0.1469881839965571,
            -2.306902384832885,
            0.5879486745430812,
            0.8063112744692252,
            -0.37480531309290793,
            1.7260823549357418,
            0.2882015749889292,
            -1.8365377713632955,
            -4.168262959573266,
            -2.902342253591774,
            1.1961291546201422,
            4.704824421411056,
            -0.14681750580329578,
            1.1213114980165904,
            1.3358614211460615,
            -2.382719849020077,
            0.0983507615726122,
            -0.6307968084406277,
            3.260530349020631,
            0.19392013604410815,
            -0.05945227353357598,
            -3.4254340275161685,
            1.0132822467414186,
            0.3023648493471426,
            -0.2328333474445257,
            -0.10844286601344244,
            -0.3297626338516626,
            3.840470461901621,
            -3.5097512021330175,
            2.0083871936044755,
            1.3887186860833132,
            -1.1904879098598278,
            -4.5714905450133285,
            -0.43514972265816837,
            2.621935968653897,
            1.3263625674022173,
            -1.8254047368695203,
            1.3587925584138498,
            -1.3157303200002133,
            -0.3402893201493591,
            0.854016802746925,
            2.258329070262718,
            1.4464890206975582,
            2.8785255407729977,
            2.086430009428882,
            -0.8167367684095526,
            -0.759670830455426,
            -2.32260814435079,
            -2.507582900472451,
            0.7312923157700479,
            -2.967234442785691,
            0.6664394873012641
        ]
    }
}